digraph Tree {
node [shape=box, style="filled, rounded", color="black", fontname=helvetica] ;
edge [fontname=helvetica] ;
0 [label=<age &le; 47.5<br/>entropy = 0.847<br/>samples = 157<br/>value = [114, 43]<br/>class = ckd>, fillcolor="#e581399f"] ;
1 [label=<ane &le; 0.5<br/>entropy = 0.383<br/>samples = 67<br/>value = [62, 5]<br/>class = ckd>, fillcolor="#e58139ea"] ;
0 -> 1 [labeldistance=2.5, labelangle=45, headlabel="True"] ;
2 [label=<rbc &le; 0.5<br/>entropy = 0.33<br/>samples = 66<br/>value = [62, 4]<br/>class = ckd>, fillcolor="#e58139ef"] ;
1 -> 2 ;
3 [label=<entropy = 0.0<br/>samples = 1<br/>value = [0, 1]<br/>class = notckd>, fillcolor="#399de5ff"] ;
2 -> 3 ;
4 [label=<rbcc &le; 4.1<br/>entropy = 0.27<br/>samples = 65<br/>value = [62, 3]<br/>class = ckd>, fillcolor="#e58139f3"] ;
2 -> 4 ;
5 [label=<entropy = 0.0<br/>samples = 3<br/>value = [0, 3]<br/>class = notckd>, fillcolor="#399de5ff"] ;
4 -> 5 ;
6 [label=<entropy = 0.0<br/>samples = 62<br/>value = [62, 0]<br/>class = ckd>, fillcolor="#e58139ff"] ;
4 -> 6 ;
7 [label=<entropy = 0.0<br/>samples = 1<br/>value = [0, 1]<br/>class = notckd>, fillcolor="#399de5ff"] ;
1 -> 7 ;
8 [label=<al &le; 0.5<br/>entropy = 0.982<br/>samples = 90<br/>value = [52, 38]<br/>class = ckd>, fillcolor="#e5813945"] ;
0 -> 8 [labeldistance=2.5, labelangle=-45, headlabel="False"] ;
9 [label=<bu &le; 32.5<br/>entropy = 0.135<br/>samples = 53<br/>value = [52, 1]<br/>class = ckd>, fillcolor="#e58139fa"] ;
8 -> 9 ;
10 [label=<sg &le; 1.013<br/>entropy = 0.229<br/>samples = 27<br/>value = [26, 1]<br/>class = ckd>, fillcolor="#e58139f5"] ;
9 -> 10 ;
11 [label=<entropy = 0.0<br/>samples = 1<br/>value = [0, 1]<br/>class = notckd>, fillcolor="#399de5ff"] ;
10 -> 11 ;
12 [label=<entropy = 0.0<br/>samples = 26<br/>value = [26, 0]<br/>class = ckd>, fillcolor="#e58139ff"] ;
10 -> 12 ;
13 [label=<entropy = 0.0<br/>samples = 26<br/>value = [26, 0]<br/>class = ckd>, fillcolor="#e58139ff"] ;
9 -> 13 ;
14 [label=<entropy = 0.0<br/>samples = 37<br/>value = [0, 37]<br/>class = notckd>, fillcolor="#399de5ff"] ;
8 -> 14 ;
}